<?xml version="1.0"?>
<opencv_storage>
<cascade>
  <stageType>BOOST</stageType>
  <featureType>HAAR</featureType>
  <height>20</height>
  <width>20</width>
  <stageParams>
    <boostType>GAB</boostType>
    <minHitRate>9.9500000476837158e-01</minHitRate>
    <maxFalseAlarm>5.0000000000000000e-01</maxFalseAlarm>
    <weightTrimRate>9.4999999999999996e-01</weightTrimRate>
    <maxDepth>1</maxDepth>
    <maxWeakCount>100</maxWeakCount></stageParams>
  <featureParams>
    <maxCatCount>0</maxCatCount>
    <featSize>1</featSize>
    <mode>BASIC</mode></featureParams>
  <stageNum>5</stageNum>
  <stages>
    <!-- stage 0 -->
    <_>
      <maxWeakCount>3</maxWeakCount>
      <stageThreshold>-5.2057498693466187e-01</stageThreshold>
      <weakClassifiers>
        <_>
          <internalNodes>
            0 -1 6 -5.2769370377063751e-02</internalNodes>
          <leafValues>
            8.6666667461395264e-01 -5.2222222089767456e-01</leafValues></_>
        <_>
          <internalNodes>
            0 -1 3 5.4196462035179138e-02</internalNodes>
          <leafValues>
            -4.7527325153350830e-01 8.1026190519332886e-01</leafValues></_>
        <_>
          <internalNodes>
            0 -1 8 -3.1353606027550995e-04</internalNodes>
          <leafValues>
            -9.9213021993637085e-01 4.7692045569419861e-01</leafValues></_></weakClassifiers></_>
    <!-- stage 1 -->
    <_>
      <maxWeakCount>1</maxWeakCount>
      <stageThreshold>9.5758563280105591e-01</stageThreshold>
      <weakClassifiers>
        <_>
          <internalNodes>
            0 -1 8 1.6938164480961859e-04</internalNodes>
          <leafValues>
            9.5758563280105591e-01 -1.</leafValues></_></weakClassifiers></_>
    <!-- stage 2 -->
    <_>
      <maxWeakCount>1</maxWeakCount>
      <stageThreshold>5.9520637989044189e-01</stageThreshold>
      <weakClassifiers>
        <_>
          <internalNodes>
            0 -1 7 -1.6960824723355472e-04</internalNodes>
          <leafValues>
            -9.9196785688400269e-01 5.9520637989044189e-01</leafValues></_></weakClassifiers></_>
    <!-- stage 3 -->
    <_>
      <maxWeakCount>5</maxWeakCount>
      <stageThreshold>-9.3385821580886841e-01</stageThreshold>
      <weakClassifiers>
        <_>
          <internalNodes>
            0 -1 1 -1.3000540435314178e-01</internalNodes>
          <leafValues>
            8.2947486639022827e-01 -7.0707893371582031e-01</leafValues></_>
        <_>
          <internalNodes>
            0 -1 9 -9.2032612883485854e-05</internalNodes>
          <leafValues>
            -9.5475542545318604e-01 5.3960263729095459e-01</leafValues></_>
        <_>
          <internalNodes>
            0 -1 0 -9.7306240350008011e-03</internalNodes>
          <leafValues>
            7.5068002939224243e-01 -6.1995345354080200e-01</leafValues></_>
        <_>
          <internalNodes>
            0 -1 12 -1.5602118801325560e-03</internalNodes>
          <leafValues>
            6.1925143003463745e-01 -4.2028495669364929e-01</leafValues></_>
        <_>
          <internalNodes>
            0 -1 7 2.1730784283136018e-05</internalNodes>
          <leafValues>
            2.7385649085044861e-01 -9.9074518680572510e-01</leafValues></_></weakClassifiers></_>
    <!-- stage 4 -->
    <_>
      <maxWeakCount>6</maxWeakCount>
      <stageThreshold>-1.1583157777786255e+00</stageThreshold>
      <weakClassifiers>
        <_>
          <internalNodes>
            0 -1 5 -5.6268936023116112e-03</internalNodes>
          <leafValues>
            7.9332971572875977e-01 -7.8246092796325684e-01</leafValues></_>
        <_>
          <internalNodes>
            0 -1 13 -1.9406424835324287e-02</internalNodes>
          <leafValues>
            7.0470613241195679e-01 -5.8882278203964233e-01</leafValues></_>
        <_>
          <internalNodes>
            0 -1 10 2.0385556854307652e-03</internalNodes>
          <leafValues>
            -4.8749491572380066e-01 5.6200420856475830e-01</leafValues></_>
        <_>
          <internalNodes>
            0 -1 11 -7.3344934207852930e-05</internalNodes>
          <leafValues>
            -9.6638303995132446e-01 3.0539232492446899e-01</leafValues></_>
        <_>
          <internalNodes>
            0 -1 2 1.9492006395012140e-03</internalNodes>
          <leafValues>
            -3.6637991666793823e-01 6.1801385879516602e-01</leafValues></_>
        <_>
          <internalNodes>
            0 -1 4 4.6551548875868320e-03</internalNodes>
          <leafValues>
            -2.8804865479469299e-01 7.9223579168319702e-01</leafValues></_></weakClassifiers></_></stages>
  <features>
    <_>
      <rects>
        <_>
          1 4 4 10 -1.</_>
        <_>
          3 4 2 10 2.</_></rects>
      <tilted>0</tilted></_>
    <_>
      <rects>
        <_>
          2 2 18 16 -1.</_>
        <_>
          8 2 6 16 3.</_></rects>
      <tilted>0</tilted></_>
    <_>
      <rects>
        <_>
          2 4 8 2 -1.</_>
        <_>
          2 4 4 1 2.</_>
        <_>
          6 5 4 1 2.</_></rects>
      <tilted>0</tilted></_>
    <_>
      <rects>
        <_>
          5 14 11 6 -1.</_>
        <_>
          5 17 11 3 2.</_></rects>
      <tilted>0</tilted></_>
    <_>
      <rects>
        <_>
          6 0 3 4 -1.</_>
        <_>
          6 2 3 2 2.</_></rects>
      <tilted>0</tilted></_>
    <_>
      <rects>
        <_>
          6 0 6 6 -1.</_>
        <_>
          6 3 6 3 2.</_></rects>
      <tilted>0</tilted></_>
    <_>
      <rects>
        <_>
          6 0 9 6 -1.</_>
        <_>
          6 3 9 3 2.</_></rects>
      <tilted>0</tilted></_>
    <_>
      <rects>
        <_>
          6 8 9 5 -1.</_>
        <_>
          9 8 3 5 3.</_></rects>
      <tilted>0</tilted></_>
    <_>
      <rects>
        <_>
          6 8 9 6 -1.</_>
        <_>
          9 8 3 6 3.</_></rects>
      <tilted>0</tilted></_>
    <_>
      <rects>
        <_>
          6 13 9 1 -1.</_>
        <_>
          9 13 3 1 3.</_></rects>
      <tilted>0</tilted></_>
    <_>
      <rects>
        <_>
          6 15 3 4 -1.</_>
        <_>
          6 17 3 2 2.</_></rects>
      <tilted>0</tilted></_>
    <_>
      <rects>
        <_>
          7 5 4 10 -1.</_>
        <_>
          7 5 2 5 2.</_>
        <_>
          9 10 2 5 2.</_></rects>
      <tilted>0</tilted></_>
    <_>
      <rects>
        <_>
          11 2 5 9 -1.</_>
        <_>
          11 5 5 3 3.</_></rects>
      <tilted>0</tilted></_>
    <_>
      <rects>
        <_>
          11 6 9 9 -1.</_>
        <_>
          14 6 3 9 3.</_></rects>
      <tilted>0</tilted></_></features></cascade>
</opencv_storage>
