<?xml version="1.0"?>
<opencv_storage>
<cascade>
  <stageType>BOOST</stageType>
  <featureType>HAAR</featureType>
  <height>20</height>
  <width>20</width>
  <stageParams>
    <boostType>GAB</boostType>
    <minHitRate>9.9500000476837158e-01</minHitRate>
    <maxFalseAlarm>5.0000000000000000e-01</maxFalseAlarm>
    <weightTrimRate>9.4999999999999996e-01</weightTrimRate>
    <maxDepth>1</maxDepth>
    <maxWeakCount>100</maxWeakCount></stageParams>
  <featureParams>
    <maxCatCount>0</maxCatCount>
    <featSize>1</featSize>
    <mode>BASIC</mode></featureParams>
  <stageNum>3</stageNum>
  <stages>
    <!-- stage 0 -->
    <_>
      <maxWeakCount>1</maxWeakCount>
      <stageThreshold>5.4440152645111084e-01</stageThreshold>
      <weakClassifiers>
        <_>
          <internalNodes>
            0 -1 2 -1.9377404896658845e-05</internalNodes>
          <leafValues>
            -1. 5.4440152645111084e-01</leafValues></_></weakClassifiers></_>
    <!-- stage 1 -->
    <_>
      <maxWeakCount>1</maxWeakCount>
      <stageThreshold>9.6506547927856445e-01</stageThreshold>
      <weakClassifiers>
        <_>
          <internalNodes>
            0 -1 2 2.5112407456617802e-05</internalNodes>
          <leafValues>
            9.6506547927856445e-01 -1.</leafValues></_></weakClassifiers></_>
    <!-- stage 2 -->
    <_>
      <maxWeakCount>3</maxWeakCount>
      <stageThreshold>3.7734279036521912e-01</stageThreshold>
      <weakClassifiers>
        <_>
          <internalNodes>
            0 -1 0 -2.7933251112699509e-02</internalNodes>
          <leafValues>
            7.7645659446716309e-01 -5.3566008806228638e-01</leafValues></_>
        <_>
          <internalNodes>
            0 -1 1 -1.1128404003102332e-04</internalNodes>
          <leafValues>
            -9.9456882476806641e-01 4.1964274644851685e-01</leafValues></_>
        <_>
          <internalNodes>
            0 -1 1 1.0575721535133198e-04</internalNodes>
          <leafValues>
            4.9336013197898865e-01 -9.9689084291458130e-01</leafValues></_></weakClassifiers></_></stages>
  <features>
    <_>
      <rects>
        <_>
          5 0 10 6 -1.</_>
        <_>
          5 3 10 3 2.</_></rects>
      <tilted>0</tilted></_>
    <_>
      <rects>
        <_>
          7 6 7 9 -1.</_>
        <_>
          7 9 7 3 3.</_></rects>
      <tilted>0</tilted></_>
    <_>
      <rects>
        <_>
          8 9 3 4 -1.</_>
        <_>
          8 11 3 2 2.</_></rects>
      <tilted>0</tilted></_></features></cascade>
</opencv_storage>
